digraph Tree {
node [shape=box, style="rounded", color="black", fontname=helvetica] ;
edge [fontname=helvetica] ;
0 [label="emetteur:blabla <= 0.5\nmse = 0.1\nsamples = 8\nvalue = 1.8"] ;
1 [label="mse = 0.0\nsamples = 2\nvalue = 1.0"] ;
0 -> 1 [labeldistance=2.5, labelangle=45, headlabel="True"] ;
2 [label="mse = 0.0\nsamples = 6\nvalue = 2.0"] ;
0 -> 2 [labeldistance=2.5, labelangle=-45, headlabel="False"] ;
}